{
  "layers": [
    "normalization_36",
    "dense_83",
    "dense_84",
    "dense_85",
    "normalization_37"
  ],
  "norm_in": {
    "mean": [
      599.7830200195312,
      6.949381351470947
    ],
    "var": [
      30013.171875,
      0.7498584985733032
    ]
  },
  "d1": {
    "kernel": [
      [
        0.7189543843269348,
        1.0106196403503418,
        0.6392796635627747,
        -0.7815648913383484
      ],
      [
        0.3708268702030182,
        0.24663911759853363,
        0.5979092121124268,
        0.23890013992786407
      ]
    ],
    "bias": [
      -1.3917450904846191,
      -0.8873106241226196,
      -2.0246450901031494,
      0.6970728039741516
    ],
    "activation": "elu"
  },
  "d2": {
    "kernel": [
      [
        0.46998247504234314,
        0.20290836691856384,
        0.016271622851490974,
        0.09950718283653259,
        0.9411227703094482,
        1.2522554397583008,
        0.5709535479545593,
        -1.4058910608291626
      ],
      [
        -0.6636229753494263,
        -0.6715062260627747,
        -0.5327997803688049,
        -0.19446642696857452,
        0.6466537117958069,
        0.4153232276439667,
        0.01398071926087141,
        -0.6893513798713684
      ],
      [
        0.05687170848250389,
        0.4558214843273163,
        -0.1773357391357422,
        -0.8202760815620422,
        1.0409290790557861,
        2.950368881225586,
        -1.28098726272583,
        -1.9539885520935059
      ],
      [
        0.4898107349872589,
        -0.08287688344717026,
        0.41948840022087097,
        -0.2698511481285095,
        -0.5545182824134827,
        -1.4787315130233765,
        -0.22893206775188446,
        0.17759613692760468
      ]
    ],
    "bias": [
      -0.2721076011657715,
      -0.753631055355072,
      -0.24827930331230164,
      -0.11638687551021576,
      0.30520808696746826,
      -0.6462969779968262,
      -0.5541560649871826,
      0.9821694493293762
    ],
    "activation": "elu"
  },
  "d3": {
    "kernel": [
      [
        -0.8936578035354614
      ],
      [
        -0.9145755171775818
      ],
      [
        -0.6515195965766907
      ],
      [
        -1.76491379737854
      ],
      [
        1.6289047002792358
      ],
      [
        1.7460328340530396
      ],
      [
        -0.7072770595550537
      ],
      [
        0.5909320116043091
      ]
    ],
    "bias": [
      0.8074106574058533
    ],
    "activation": "linear"
  },
  "norm_out": {
    "mean": 1.0177891254425049,
    "var": 2.252845287322998
  }
}