{"layers": ["normalization_38", "dense_181", "dense_182", "dense_183", "normalization_39"], "norm_in": {"mean": [598.7935180664062, 7.582835674285889], "var": [53868.28515625, 0.1578904688358307]}, "d1": {"kernel": [[-0.8004159927368164, 0.374288946390152, -0.40218988060951233, 0.4603404104709625, 0.5821216106414795, -0.8870288133621216, -0.8183650374412537, 0.9682173728942871], [0.06629133969545364, 0.4186173975467682, -0.6113396286964417, 0.04928634315729141, 0.6741487979888916, 0.43739303946495056, -0.2948610484600067, 0.05267331749200821]], "bias": [1.4123711585998535, -0.24666880071163177, 1.8246028423309326, -0.38748541474342346, -0.9157171845436096, 1.1855840682983398, 0.9798309803009033, -0.2329932302236557], "activation": "elu"}, "d2": {"kernel": [[-0.5349704623222351, 0.5699499845504761, -0.9304788708686829, -2.3475325107574463], [0.059124141931533813, -0.6488211154937744, -0.3548821806907654, 0.800851047039032], [-0.644356906414032, -0.36969929933547974, -0.7642775774002075, -1.128597378730774], [0.5439666509628296, 0.5767660737037659, -0.8423578143119812, 0.43901699781417847], [0.057779937982559204, 0.5924462080001831, -0.6740526556968689, 1.46323823928833], [-0.29305627942085266, -0.4776124060153961, -0.05869888514280319, -2.014035224914551], [0.19826555252075195, 0.03617674484848976, -0.7583887577056885, -0.21148943901062012], [1.0151526927947998, -0.7778031826019287, -0.4824400544166565, 0.02300284430384636]], "bias": [-0.18740308284759521, -0.46021130681037903, -0.1730579435825348, -0.5663117170333862], "activation": "elu"}, "d3": {"kernel": [[1.590791940689087], [-1.0148648023605347], [-1.3836995363235474], [1.3713202476501465]], "bias": [0.40864256024360657], "activation": "linear"}, "norm_out": {"mean": [2.303144931793213], "var": [15.394793510437012]}}